encog,BasicNetwork,java,3.4.0,1,1671548052670
[BASIC]
[BASIC:PARAMS]
[BASIC:NETWORK]
beginTraining=0
connectionLimit=0
contextTargetOffset=0,0,0
contextTargetSize=0,0,0
endTraining=2
hasContext=f
inputCount=9
layerCounts=9,19,10
layerFeedCounts=9,18,9
layerContextCount=0,0,0
layerIndex=0,9,28
output=0.4629027362,0.4501182154,0.4750943998,0.4164011713,0.4115743153,0.470921653,0.3632398424,0.4970630692,0.4863539198,2.7166182464,4.6260899617,2.5102428375,3.9923884006,0.3651273733,3.2737683401,4.7596901088,4.7679166853,5.1722923148,1.0482420949,5.8451850191,1.9692851751,0.9079610591,6.7131315924,2.8197545283,0,6.3334007048,3.8989635431,1,0.22395,0.406075,0.780325,0.654825,0.329225,0.92565,0.0982,0.391475,0.800975,1
outputCount=9
weightIndex=0,171,351
weights=-0.3340463267,0.0920298671,-0.1900285724,-0.4108248727,-0.1881446328,-0.0318313565,-0.8051035609,0.1899540228,0.1994840752,0.323446319,0.4505070115,-0.4142575695,-0.0541537624,0.5400863036,0.5453372284,-0.5403574752,-0.528354829,0.1207691425,0.1223745044,0.0841469027,-0.2954375553,0.0585332718,-0.2187917124,-1.1055791951,0.4433344375,0.1476680487,0.0488303173,0.1318067534,-0.4744541428,0.0653304322,-0.1394620966,-0.5329219366,0.1543403937,0.2126778876,0.193892376,-0.3180912153,0.131096409,-0.258972169,-0.4188284457,0.2501857387,-0.3501145267,0.0664289991,-0.9381586369,0.4382951597,-0.1631749573,0.2711049675,0.1024958391,0.6110901466,-0.1022944903,-0.1082508031,0.7779353851,-0.135133163,-0.31109474,-0.997251503,0.1618848403,-0.5124222584,0.5771740598,-0.0824712241,-0.0316852552,0.1068214045,-0.5199102045,-0.7248013512,0.0657047514,-0.593778718,0.3891477389,-0.1146659314,0.0979460199,0.1768703975,-0.0510042508,-0.2087052242,0.3462893224,0.4659429041,-0.5429039428,-0.3841352719,0.1118488455,0.9656843249,0.1535239094,0.3098373088,-0.2150491447,0.1499836781,-0.4335348882,-0.3347188944,0.1013500256,-0.1520921022,-0.16901675,-0.1700821396,-0.4183074126,-0.1911122811,0.5375831087,-0.0167807499,0.3657180267,-0.8947381718,-0.0552743687,0.2130589359,1.2166332459,-0.0158627817,0.0607794366,-0.3217164846,0.2856313272,0.163111549,0.0251212254,-0.0092711374,0.0936011521,0.1848449963,0.2310328647,-0.0140555116,-0.08539692,0.9077134115,-0.1042277845,-0.3395872869,-0.0055194743,0.0394352175,-0.317475377,-0.358017514,0.2725200728,-0.3046511455,0.3671797392,0.0783747455,-0.4745396007,0.0838688985,-0.162399504,0.1832688906,-0.3153720593,-0.6310049034,0.1036807519,0.0225803943,-0.2680937853,-0.0502058397,0.3050740202,0.6653969792,-0.1801571338,0.2706322665,0.1191159267,0.1197861785,-0.0330862366,-0.0157576263,-0.4992636134,1.3404384026,-0.744339754,0.0552294965,-0.1789682487,0.158774736,0.3557663927,0.3704014757,0.0996157204,-0.9746629041,0.239854506,0.0799131193,0.2492959025,-0.1112742529,0.4857438787,-1.3085990586,0.6894012126,-0.0363980666,-0.4542795673,-0.263573361,-0.8932906241,-0.2268786954,-0.1058103849,-0.28100155,0.1440735565,0.7947169223,-0.0981278666,-0.1073467583,-0.9120314841,0.190094569,-0.1373850338,0.4088145669,0.0514615074,0.6444734942,-0.346716116,1.1910162556,0.0680534776,1.1113981094,0.1362442934,0.7929090446,0.5116372721,-0.1616479239,-0.0586598188,0.1265024264,0.6686573176,1.8381702041,0.1849443384,1.2962051764,1.5430925908,1.8345279506,0.2026443416,0.8977940614,0.2365276145,0.3285141787,0.881973694,0.2875225405,0.5079645643,0.2225972142,0.2676712103,-0.8822131662,0.9635787012,0.2933096691,-1.0111999834,1.1433746884,0.7403564505,0.1063622527,0.6438688689,0.4201116162,-0.2247278544,0.8886684749,1.3957144839,1.5817765563,1.4107727295,-0.4562635308,1.5997713224,0.2734652384,-0.7371799929,0.3401784445,-0.2106518932,0.0374665809,0.1494491688,0.0654851686,0.0003027962,-0.3439737704,0.5940182319,1.4612683192,-0.7690169778,0.8640005937,-0.1518962923,0.8606502277,1.145155124,0.6735936223,0.246953504,0.3337239869,0.9105720968,-0.3469912131,0.9776987115,0.2940224191,0.3280042024,1.5061155202,1.4153101285,-0.1593019295,0.1437297778,0.8980204411,1.4303136,-0.2132091216,-0.3043456331,1.8260053882,1.828616127,1.7528260929,0.6841973596,1.4677811833,1.4349427063,-0.033629849,0.427605715,0.3614371448,-0.2149224769,1.8848511985,0.967162854,0.083627227,-0.0405512869,1.1644029064,0.8902813523,1.2671986417,1.6066466188,-0.6720311646,-0.0407895646,0.0285317326,-1.120526834,0.5502330691,1.185646083,0.029937207,-0.942878462,0.3640672642,0.7227130128,1.2316584689,1.8675337839,-0.2686456906,1.4628792572,1.5438053721,1.0309149344,-0.80384642,0.7232982139,1.0716153134,1.5376191045,0.1713530155,0.8020485513,-0.1163631169,-0.4083912295,1.6401579936,-0.7543320531,0.9929375643,0.9242068483,0.6374820547,1.1517935538,0.2771049156,0.5917075399,-0.1438248435,0.2051500358,-0.1166135689,0.2434611728,-0.2753956297,-0.2251182668,1.0995131781,-0.3689597531,0.9048186698,2.0145617968,0.2990650611,-0.3870526227,0.1325114416,1.9617939745,0.9032008518,1.4626687579,1.5701184744,1.934039167,0.5062010779,0.0793094523,1.2893657641,-0.9541951057,1.3709221526,0.5381717952,0.0847109704,0.8243257748,0.2967639832,0.7746690319,0.7290121957,-0.4949053774,0.9876270369,0.6744634332,-0.0555013144,-1.3692090489,-0.0335970905,-0.931110292,-0.490209525,-0.6953348,1.5858726729,1.0635738487,1.5860360888,1.1987873087,0.1526472131,0.9352414331,0.2742472059,2.0748924185,1.9830471146,0.1802019997,0.4879806932,-0.0639607058,0.2070455937,1.613040317,0.6118182834,0.8429164966,1.4969653087,0.5904967882,1.651429557,-0.0847609104
biasActivation=0,1,1
[BASIC:ACTIVATION]
"org.encog.engine.network.activation.ActivationSigmoid"
"org.encog.engine.network.activation.ActivationReLU",0,0
"org.encog.engine.network.activation.ActivationLinear"
