encog,BasicNetwork,java,3.4.0,1,1671631291421
[BASIC]
[BASIC:PARAMS]
[BASIC:NETWORK]
beginTraining=0
connectionLimit=0
contextTargetOffset=0,0,0
contextTargetSize=0,0,0
endTraining=2
hasContext=f
inputCount=9
layerCounts=9,19,10
layerFeedCounts=9,18,9
layerContextCount=0,0,0
layerIndex=0,9,28
output=0.2432879167,0.976551167,0.2172148812,0.1509063751,0.3346816515,0.3684651685,0.5614659111,0.4600497443,0.2452215293,1.8040139131,1.0867897707,0,0,1.9506124176,1.3603964082,3.5043835794,0.8919426109,2.0395574573,0.6395394891,0.0745664828,1.9861508813,0,4.3510380862,0,0.7510406746,1.2787177325,1.5409330949,1,0.7799,0.9247,0.355975,0.249725,0.8884,0.53125,0.908775,0.863825,0.541825,1
outputCount=9
weightIndex=0,171,351
weights=-0.7761120637,0.6899228686,-0.422591549,0.3638577582,-0.4618316892,-0.6493549827,0.2915694558,0.700284929,0.4560960416,0.2481875053,0.3982181118,0.101540572,0.7128865385,-0.8129789553,-0.4834017752,-0.8409580724,0.7913132633,0.9352912252,0.0489084179,-0.8452365456,-1.0284445726,-0.0405053366,-0.3246273268,0.6354465354,0.2247122765,0.5598680343,-0.552614738,-0.0720423056,-1.1414495389,0.4432207811,0.400637885,-0.7140508465,0.8347023132,-0.0294580873,-0.5858589172,-0.0071031137,0.2836452051,-0.2142247516,-0.1894482277,-0.7564829923,0.8000563798,-0.3307733595,-0.1911655603,-0.0823950836,-0.259552471,0.5178465299,-0.3872967703,-0.6897231135,1.1474064729,0.7930275944,-0.9551972426,-0.1468303792,-0.0477915226,0.9868446233,0.250715394,-0.6805285749,1.0107435804,-0.3963991105,0.4374616587,-0.7168838957,-0.548133128,0.7223111211,0.2539088645,-0.6795640374,0.5585341931,-0.6701791622,0.4871801415,0.2632675175,-0.6988372988,-0.6047857905,-0.3255380686,-0.6403660385,1.0629183871,1.1174502358,-0.4204452884,0.9018492418,-0.2438383711,0.6493202098,0.2927132578,-0.2579928964,0.2577988556,-0.6711954854,0.7534548039,-1.1521455533,0.8238632353,0.5253456947,-1.123002804,0.4380026097,0.1466588348,-0.5448253498,0.8511454707,0.617571157,-0.4684417351,-0.9528853197,-0.9838178144,0.9710652009,0.9976542942,0.6893609268,-0.5050056556,-0.8031425976,0.7540007129,-0.7950337075,0.9385735677,0.2983413948,0.4769015188,0.5339457039,-0.5546136981,-0.6632664438,-0.3382079208,0.6270426591,-0.5998457509,0.3558480414,0.6690997552,-0.3007859468,-0.7433651105,0.5366200187,-0.2330976485,-0.2956878856,-0.7094311729,0.3791133635,-0.0616172331,-0.4233573654,0.7243670573,-0.7634399326,-0.3265627774,-0.4981860677,-0.5508555741,0.1314291854,-0.0747954768,-0.2376081691,0.6124230058,0.4795781437,0.5757541634,-0.2667135137,1.0041591639,-0.1149402067,0.1543006485,-0.7732617558,-0.1556290212,-0.419138059,-0.2476780339,-0.513800229,0.8329483374,-0.4604259314,0.5251604019,0.5719395093,-0.048362045,-0.5499909675,1.0444042349,0.5333331995,0.7050952631,-0.1964570679,0.6059376998,0.6970121686,-0.808729362,0.5518207904,-0.1153736229,-0.1047619839,0.1276841318,0.2940752983,-0.6799005646,-0.2641522674,-0.2378755329,1.0759535786,0.9644011388,-0.4736714915,0.0874319932,0.3880473511,-0.9224332039,-0.7277517723,0.1897618689,-0.5822016099,0.3512190945,0.3135456844,-0.2928516263,0.7348146031,0.8810807879,0.9124026732,0.1827163887,-0.9161647017,0.2833323531,0.3149179917,0.174898645,0.0075447023,0.8929275589,0.1795277026,-0.1377972747,0.4924557512,-0.5540274366,0.2681216654,0.2532730368,-0.8505575703,-0.9364509647,0.5545078283,-0.9344225542,-0.7107907763,0.5610186486,-0.9976768589,0.4459030207,-0.8213883857,0.4407596497,0.1160288139,-0.9414338956,-0.3380069824,0.1601487113,-0.3711368101,-0.1135776216,0.5299692713,-0.065906732,0.0199663314,0.4766599949,0.4450299005,0.394938999,1.0141950136,1.0055137062,-0.8134471158,-0.0278376853,0.8935667647,0.766221257,0.9560970415,-0.6283107799,0.6329702951,0.1404137522,0.9167661747,0.3247795643,0.6782146283,-0.6850038014,0.5415353385,-0.645750042,0.2367922385,0.0282145546,0.5167464264,-0.719877058,0.1099846808,0.5505206249,0.6205260466,1.037228215,0.658167347,0.5434757646,0.6496715547,1.068507695,0.7304089094,-0.2645436967,0.9011815087,0.3949754571,0.7861022089,-0.0004608383,-0.5687773422,-0.4081134695,0.2804321588,0.1668426355,0.8515789554,0.937192953,-0.2545195236,0.5712175556,-0.1132174431,0.1219921224,-0.3122529748,-0.0258643464,-0.5880002681,1.1172212626,0.4598301476,-0.2010394585,0.5827483612,0.6034977854,-0.3066946185,0.3346848993,-0.4107889996,0.4909588284,-0.6947076821,0.5289552113,-0.2988893474,0.0264845465,-0.9270059636,-0.8577980728,0.3244879264,-0.3093423996,-0.5146125729,0.5725490757,-0.3975068777,0.891911672,1.0376171895,1.1040285963,1.129479428,0.5045345597,0.17128089,-0.0462264792,-0.0832678509,-0.3115901542,0.8719180742,-0.6272473701,-0.5737764967,-0.839806232,0.2927772038,-0.8484089359,-0.884605635,0.8413848481,0.8654481563,-0.4970374608,-0.1235143002,-0.8453425212,1.1220615263,0.7697292483,0.1603153669,-0.1360261415,0.7112493237,1.0189534945,1.0737840551,-0.3494887877,0.7186724877,0.5045559151,-0.4414302391,-0.6475944687,0.6997833123,0.4694235578,0.8351832932,-0.3884322497,-0.4910066255,-0.7444459998,0.5949602511,-0.7355407829,0.1824238226,-0.5029455389,-0.3908334872,0.5222439861,-0.4017088846,-0.3378624827,1.0354686599,0.6849629642,-0.0666294753,0.1223246149,-0.3102777514,0.4315453864,0.3396336654,-0.3523713574,1.027229062,-0.7428496634,0.6251820106,-0.4676162816,0.4397025458,0.168343781,1.0008685845,1.0807563485,0.5089629555,-0.333568329,-0.7772717481,0.3128923609,-0.0464552291,0.0887895355,-0.0943067092,0.2040231706
biasActivation=0,1,1
[BASIC:ACTIVATION]
"org.encog.engine.network.activation.ActivationSigmoid"
"org.encog.engine.network.activation.ActivationReLU",0,0
"org.encog.engine.network.activation.ActivationLinear"
