encog,BasicNetwork,java,3.4.0,1,1671816181349
[BASIC]
[BASIC:PARAMS]
[BASIC:NETWORK]
beginTraining=0
connectionLimit=0
contextTargetOffset=0,0,0
contextTargetSize=0,0,0
endTraining=2
hasContext=f
inputCount=9
layerCounts=9,19,10
layerFeedCounts=9,18,9
layerContextCount=0,0,0
layerIndex=0,9,28
output=0.6106614631,0.0733906096,0.7545068036,0.7226704991,0.370855203,0.9192053151,0.6498075545,0.3447344089,0.5068664763,0,0,0.1928095025,0.7309087048,0,0,0.4947947178,0,0,0.5299149809,0.7074055503,0.5095909043,0,0,0.9623552373,0.8275542157,0,0.4288095921,1,0.0029178612,0.0000118316,0.0000987486,0.0008116041,0.0039178612,0.0000108077,0.0000713311,0.0000687144,0.0000687144,1
outputCount=9
weightIndex=0,171,351
weights=0.7512207334,-0.1971700963,0.8832355899,-0.8165315809,0.8318170529,-0.6793239044,-0.30046424,-0.3248460321,0.2552691689,-0.5924610546,0.2591626414,-0.2146494202,0.2045728089,-0.3694013869,0.6465645532,0.4328262411,-0.2452414436,0.2093859441,0.1950810636,0.6774595078,-0.2211688509,-0.1892980313,-0.772503753,-0.2800493723,-0.6987704204,-0.411863123,-0.3531988155,0.7380602518,-0.5476764504,-0.3289295433,-0.5227024124,0.3758941134,-0.5343116647,-0.4491069133,-0.6310073425,0.8492798853,0.6930769544,-0.2843521745,0.9697556798,-0.1812605704,0.4768457466,0.7534032706,-0.9270378017,-0.2858513859,-0.7776489751,0.0256782649,-0.9275572007,0.0393151731,0.9573517047,-0.2330170377,0.8972412394,-0.9847957039,-0.0668219957,0.7711270168,-0.6576571798,0.9188095823,-0.6822012566,0.9327149528,0.4537450928,-0.3739495064,-0.9153242972,0.800137613,0.1506200135,0.9546244581,-0.9164613485,0.7372155338,-0.1710548306,0.0021786471,-0.0271114532,-0.6760855831,0.8717320591,-0.0196905565,0.94811964,0.5977017866,0.7199082543,0.2550678397,-0.3684574519,-0.347071278,0.1052469081,-0.5103152587,0.7756942277,-0.7060199254,0.7589963536,-0.6896984328,-0.2626899859,0.4459779481,0.6458723522,-0.1993143265,-0.6571520566,-0.6933974071,-0.3298292302,-0.9933164591,-0.277623817,0.1348104003,-0.0614230567,0.2423686757,0.6411458602,0.2655508045,0.7709202045,0.8871701994,-0.2825202704,0.0877957434,-0.5188989871,-0.6217184137,0.2882223125,0.4645079461,-0.2062014121,0.3124674107,-0.8744506727,-0.1259850284,0.7642176732,-0.0414922092,0.1279210552,0.8311910127,-0.5996938204,-0.7870358523,-0.9108525255,0.8001065958,0.9132849656,0.4328837622,-0.2389534939,-0.7665966551,-0.2194645206,-0.2223652648,0.2664414834,0.4619176936,-0.7594663111,0.9839603261,0.0151566423,-0.6656120506,-0.6629006177,0.3983799968,0.386620741,0.0584600265,0.1401258339,-0.0074033278,0.6591872059,-0.3443150285,-0.276087028,-0.6877535868,-0.3998221508,0.651679192,-0.5230687241,0.3082566574,-0.7369032504,0.610785677,-0.2536321543,0.3398201206,0.0437779282,-0.6259155245,-0.5900740238,-0.4579359421,-0.4989643534,0.8112981705,-0.2555181476,-0.3663912803,0.8057435041,0.8805293731,0.5042835678,-0.6794027565,0.2700767442,-0.6173224016,-0.0849591054,0.0570060747,-0.3242425346,0.6745295873,0.8917397137,0.5765356232,-0.373001128,0.1619439682,-0.9515331527,-0.4292064645,0.5591838671,0.803748742,-0.1806686023,-0.0387145783,-0.584650312,-0.7055036043,0.3363767716,0.5328420119,-0.6762566019,0.6879448559,0.1900912523,-0.2141426436,-0.3049796529,0.9183670376,0.7997141244,0.2377025957,0.8653280804,-0.6022772944,-0.9925945243,-0.2130597099,-0.7066546408,0.8728678095,-0.2010676067,-0.955711401,0.0647641736,-0.8827077446,-0.5419199183,0.475482129,0.1973277093,-0.8199743084,-0.902265814,-0.2734929975,0.1584005509,-0.5951403104,0.1212129814,-0.5506091506,-0.0482272357,-0.8240940365,0.7356399835,0.9144509617,-0.3110739608,-0.8575682715,-0.6097533141,-0.5693574561,-0.7510186505,-0.5900153363,-0.3202240875,0.6038661404,-0.3874182788,-0.031480053,0.1846753577,-0.2347052616,-0.3534887452,-0.8208794555,0.2825991985,0.7022615383,0.4922845769,0.7641674889,-0.7610767511,-0.6631881622,0.1028515338,-0.9656604231,0.5195221423,0.7264271249,-0.6728322875,0.8387315401,-0.1796356321,-0.9865637879,0.4935838415,-0.6454156372,0.8788617719,0.8669854084,0.8842913839,-0.0239327764,0.983528693,0.4607352491,-0.7187227679,-0.5336990187,-0.216065149,-0.9679937026,-0.5950200165,-0.1408215461,-0.9313782512,0.1981071313,0.4898488362,-0.9110135533,-0.4422028458,0.5994285593,-0.5327653252,-0.4248572512,0.5736823212,0.2287180923,-0.1232359492,-0.3106500876,-0.7964266585,-0.4735110593,0.0075927532,0.9690938203,0.532417656,0.0660671875,0.0667858687,0.2562158471,0.3644903276,-0.4093925103,0.5066951628,0.0067243248,0.0052369598,0.6062053406,0.7084468346,0.3968257534,-0.4489721365,0.6598811183,0.6845188458,0.389835478,0.2091822195,-0.1266106153,0.9870107171,0.815411398,0.50617321,0.028159534,0.4149418456,0.6238673854,0.4792250909,0.8831519254,0.864054425,0.2682515761,-0.7840438755,-0.6621188833,-0.3065613299,-0.7303602218,-0.3156497179,0.5592462952,0.0580369448,-0.5463534372,0.738868697,-0.334575946,-0.8006003911,-0.4121911535,-0.9101521407,0.0126316183,-0.2786587979,-0.5647371374,-0.6845806316,0.3419273932,-0.0377108724,0.4813957015,-0.2873561325,0.2065761547,0.9615650482,-0.3754707602,-0.2547160625,0.9836688008,0.1310260888,-0.5422828809,0.1979266373,0.7547950219,0.8710172276,-0.1734113891,0.8304699978,0.0866316219,-0.3396016806,0.1142700864,0.2066248304,-0.5007016172,-0.0132981722,0.6529765429,-0.9856140749,-0.3353076398,-0.175542525,0.5740242696,-0.2136477949,-0.2766612725,0.6390705794,-0.0072025122,-0.1436928006,-0.7809862564,-0.3594575612,0.1605104272,0.4267449949
biasActivation=0,1,1
[BASIC:ACTIVATION]
"org.encog.engine.network.activation.ActivationSigmoid"
"org.encog.engine.network.activation.ActivationReLU",0,0
"org.encog.engine.network.activation.ActivationLinear"
