encog,BasicNetwork,java,3.4.0,1,1671628953742
[BASIC]
[BASIC:PARAMS]
[BASIC:NETWORK]
beginTraining=0
connectionLimit=0
contextTargetOffset=0,0,0
contextTargetSize=0,0,0
endTraining=2
hasContext=f
inputCount=9
layerCounts=9,19,10
layerFeedCounts=9,18,9
layerContextCount=0,0,0
layerIndex=0,9,28
output=0.3774780701,0.2674885393,0.3604932648,0.445913814,0.1623218699,0.078933987,0.7622835873,0.0871027739,0.3833792345,0,1.4012198229,0,2.1208583978,1.349546289,0.647452746,0,0,1.7224171691,0,0,0,3.3307115062,0,0,0,1.8193585373,0,1,0.825625,0.41335,0.170675,0.630925,0.6553,0.80395,0.17945,0.962625,0.615275,1
outputCount=9
weightIndex=0,171,351
weights=-0.9011826292,0.4350140624,0.5718184402,-0.4594903675,-0.9048100206,0.5765423723,0.7653494814,0.3330787339,0.8250407155,-0.1694334271,0.7218452737,0.7124682461,-0.5653797861,0.2426684919,-0.2592056227,0.465407431,0.6775418899,-0.333725483,-0.0581425978,-0.5600960585,-0.6314385158,-0.3984361197,0.0737294297,0.0012724254,0.6679156554,-0.6288683557,0.6157410436,0.3404735926,0.2044025918,-0.5082689238,-0.5381331108,-0.1036337969,-0.4605598774,-0.0965853282,-0.7444407648,-0.8248856796,0.4457295429,0.5463507192,-0.0025138682,0.8215510041,0.0005892003,-0.1938934929,-0.862228004,0.865938809,-0.4967283018,-0.4315111267,-0.3579210284,-0.3528619342,-0.2995546084,0.0794590264,0.0637423471,-0.303348956,0.6171212301,0.3045581309,-0.0691501381,0.7881346948,-0.1802237964,-0.453594062,0.1291364893,-0.6421856584,-0.6074710398,-0.1501112557,-0.2629100246,0.5459906945,-0.456918224,0.3444839321,0.3582534532,0.0833318075,0.7999753697,0.1395760709,-0.266273137,0.8387781136,0.4948591572,0.3837034356,0.292753487,-0.4933059867,0.1162222127,-0.1174703597,-0.3931643663,0.0630431723,0.0411987368,-0.1696124641,0.0780608187,-0.542331225,-0.3697806205,-0.2506844613,-0.7257413547,0.7062434416,-0.6193984132,-0.5394416675,0.5431309946,-0.6653981223,0.8496900952,-0.3503391201,-0.4018771279,0.8433223859,-0.5380750489,0.6663548547,-0.8386128632,0.3924219132,0.6277172726,-0.2910516805,-0.4294944235,0.1862772371,0.1840001145,-0.2025988182,0.5385388009,-0.6764270785,-0.0248436875,-0.6889267271,-0.5530010521,0.8744129784,-0.6499147451,-0.5191224387,0.1481196545,-0.2729609308,-0.998208368,-0.6505972167,-0.4250683449,-0.8307026027,-0.5157417252,-0.5610202453,0.6103314308,0.4005181583,0.9964459177,-0.2968619257,0.4861226543,0.4813798984,0.0502798774,0.5125824311,0.5406744356,0.3731400269,0.3849728511,0.4981293993,0.6024179429,-0.269665553,-0.7808655054,0.0265183888,-0.7983401298,0.5262080835,0.5796219676,0.5942240879,0.4401253398,-0.4602198795,0.3606421176,-0.4778942083,-0.406936253,-0.5755763475,-0.2071097866,-0.8583392931,-0.6848774097,1.0734032284,-0.6378706556,0.7564216311,-0.8906631854,-0.7275885967,-0.3006316529,-0.4389909829,0.9692973314,-0.2025470365,0.4894013133,0.0130145371,-0.9227180413,0.1445170179,0.0739605352,0.5834663055,0.2753463609,-0.1418382337,-0.7976110441,0.4438266025,1.0597581579,-0.8087151113,-0.6769482592,-0.7180258217,-0.0102280175,-0.5463644457,0.6511380832,-0.3682138694,-0.6022227294,-0.03101261,0.6836053226,0.7578386553,-0.5617434467,-0.011326083,-0.486965572,0.244244856,0.8210366656,0.963382661,-0.3109534067,1.0290800819,-0.0099430546,-0.5795691841,-0.7075154571,-0.8164092647,-0.443714238,-0.7113905859,0.3214550923,-0.4861518371,1.0113385505,0.3711408312,-0.1254725247,0.3976629086,-0.6492400983,-0.0511368504,-0.6625213608,0.4174703174,0.2281675171,0.9706815083,0.5826872016,0.8373039518,0.7803565976,0.1174378494,0.2551360018,0.1703199537,0.8701252055,0.1146432355,0.4266260477,-0.0814233681,0.6312352394,0.7362898185,-0.8950907454,-0.8076136327,-0.370368146,0.3511468129,-0.2448781988,-0.698173251,0.9856344254,0.8200303524,0.5715384764,0.251814721,0.3747433799,-0.3821337411,0.8160612587,0.3681175028,0.7164899859,-1.0878506111,-0.2684034058,-0.0164500897,-1.0844425684,0.8984780462,-0.8098395232,-0.5927527938,0.4018588863,0.0501984548,-0.4078915,0.8263552573,0.5493462991,-0.0609989037,-0.81563335,-0.8390077647,0.8718799283,-0.7784000755,0.3355783519,0.6066848074,0.4525063344,-0.8634001793,0.2900201949,0.4003358482,1.0180882043,0.8160933469,0.6159540733,-0.8542057388,0.1538710501,-0.6402499478,0.7232549946,0.4849106747,-0.7588527949,0.6147591309,-0.3339607357,-0.4710614071,0.2163442025,-0.2596791702,-0.715025016,-0.0612937989,-0.715209031,-0.9388925712,-0.9098626578,-0.731774479,-0.5574216586,-0.6084319396,-0.1734668821,-0.5804941249,0.7945952751,-0.896150929,0.8770200896,0.049182665,0.3112123406,0.4728371318,0.2396582818,-0.6338965042,-0.85810756,0.8665265108,-0.5918741939,0.7328305274,0.7508129711,0.2768755606,0.7217557794,0.2569485635,0.8297042785,-0.6003022281,1.0240095686,0.0929876314,-0.6939893669,0.4347569128,-0.577252584,0.8659280843,-0.1559798353,-1.0573628229,-1.0181664672,-0.6555236089,0.1777857128,-0.5570602492,-0.6675098045,-0.1000098854,-0.4381995974,-0.497620103,0.5123824086,-0.1880825874,0.0150187351,-0.6229903198,0.6985447147,-0.4580428657,0.5446499055,-0.1160208765,0.645456776,-0.0669023464,-0.4604720061,-1.0264891718,-0.9789449115,0.0077476715,0.4349224428,1.0292132686,0.5967495792,-0.1257849287,0.4930218772,-0.0636176558,0.5906889678,1.0662526721,-0.144221894,0.8573983265,-0.5798825338,0.2997059678,-0.5375180479,-0.7602873369,-0.0334792142,-0.1627094067,-0.6399784597,-0.2601939187,-0.8722395532,0.8812081763,0.5495762477
biasActivation=0,1,1
[BASIC:ACTIVATION]
"org.encog.engine.network.activation.ActivationSigmoid"
"org.encog.engine.network.activation.ActivationReLU",0,0
"org.encog.engine.network.activation.ActivationLinear"
