encog,BasicNetwork,java,3.4.0,1,1671629609529
[BASIC]
[BASIC:PARAMS]
[BASIC:NETWORK]
beginTraining=0
connectionLimit=0
contextTargetOffset=0,0,0
contextTargetSize=0,0,0
endTraining=2
hasContext=f
inputCount=9
layerCounts=9,19,10
layerFeedCounts=9,18,9
layerContextCount=0,0,0
layerIndex=0,9,28
output=0.3537862922,0.7137919107,0.4620523637,0.3547216543,0.544660582,0.8685281789,0.2720044271,0.1349053681,0.2058529132,0.6233848395,0.5027746679,0,0,0,0,0.9141816887,0,0.4078440613,0,0,1.4032755498,0,1.8860774607,0,0,0.9065216965,0,1,0.4804,0.743075,0.458375,0.194525,1,0.658725,0.422925,0.374375,0.581875,1
outputCount=9
weightIndex=0,171,351
weights=0.8737239125,0.1841583194,0.5914886209,-0.9139108353,0.3166214977,0.6563309915,0.0926178725,-0.1356616253,0.6420049716,0.2519057543,0.4950354189,-0.356131694,0.0605843894,-0.8746172681,-0.6684557722,0.1535012143,0.0807493684,0.156811933,0.4899446737,-0.3047939186,0.3749068321,-0.2922516441,0.8051008734,-0.902506063,0.4863964316,0.0240578828,0.4122601516,-0.7343120864,0.7519944318,0.8901010752,-0.660049349,0.9099712997,0.6852068669,0.7813758985,-0.5951699608,0.1463088827,0.5412373115,0.6941198535,0.8409982301,0.6795127462,-0.6109556477,-0.7742644924,0.0566924822,0.2261517983,-0.7205852498,-0.6268266628,-0.9269751429,-0.0125732228,0.8544042221,-0.0963036646,0.3656285863,-0.0035243121,-0.4914786144,0.5617358654,0.6214357987,0.5047166068,-0.4027405248,-0.4593016758,-0.6608337873,0.2933116785,-0.380909822,0.4943475965,-0.2992922705,-0.474760316,-0.9949850591,-0.1745599646,-0.208990956,-0.3625562071,-0.5375227768,0.1373563104,0.018414758,-0.4159422144,-0.6227823563,0.3850454912,0.7654605399,0.8959430822,-0.6552515326,0.7227427505,-0.4231193422,0.1608653851,-0.3119356562,-0.232164292,-0.3436925018,0.0085670342,-0.7183217057,0.5057645886,0.6269718994,0.9148759565,0.7866462523,-0.3195484356,0.1671118115,-0.0045172412,-0.2229595752,-0.4806672814,0.3523651926,-0.8646736693,0.1794856828,0.3736892688,0.2363015725,0.4803188514,-0.528206384,-0.2268583837,-0.00786862,-0.4496704993,0.1452457646,0.7238344729,0.517367685,-0.5138782511,0.4632747473,-0.4721497534,-0.4779726072,0.2940748246,-0.1145169697,0.8612096242,0.8329609256,0.8068910222,0.2930635899,-0.1038618124,-0.6062739549,0.4202426418,-0.0464656963,0.8406624976,0.1323776969,0.8453365457,-0.6002984764,-0.1706818314,0.2265493629,-0.8328350723,0.9119568107,-0.853513764,0.0933061705,0.3673237746,-0.1952065412,-0.1071923619,0.6068797075,-0.4680802846,-0.7110367795,1.0512787233,0.7143873189,-0.5268723455,-0.0673288194,0.5350075958,0.0471725844,0.6113574438,-0.2189193887,-0.1307096269,-0.6579917399,-0.5397230172,0.8492886502,0.5009226966,-0.8713401133,-0.7389792939,-0.8060819729,-0.223998418,0.0567737573,0.7934703734,-0.1414665012,-0.3610120905,0.2708452307,0.1773133404,-0.5895880077,1.0032842737,-0.8774600319,-0.3277211627,-0.5999100963,-0.2908656931,0.6355802432,0.0664457014,0.6801811874,0.6057183921,-0.3502492441,-0.4872128343,0.546224866,1.0450712342,-0.4295175834,0.1179088481,-0.7889131095,0.2899990195,0.3847592702,0.2835895668,0.0261353973,-0.30227865,-0.1987463961,-0.080368737,-0.794207776,0.8402735609,0.7549358503,-0.9184684206,0.5697286617,0.3478034159,-0.3777906053,-0.3381341154,-0.903706377,-0.8769386105,0.2776508445,-0.5384998485,0.4969142841,0.3170364917,0.1785541107,-0.4009693322,0.2205407477,0.2967704094,0.4198596652,0.0487245344,-0.9538850385,-0.159708792,-0.9262723325,0.1104434244,-0.4415472512,-0.939585742,-0.3722765853,-0.893898337,0.2655842357,-0.522182513,0.8024065361,0.9844526502,-0.7892288515,-0.0266368946,-0.405161534,-0.7541756828,-0.3294849778,-0.0925434794,-0.8338828873,0.9165238104,-0.7616115904,-0.7937774071,0.5882832821,0.6006226629,-0.3314143769,-0.2656325737,-0.1090985556,0.665135155,0.0961154768,-0.7432848308,0.5149809194,0.7665801652,1.0079211356,0.1680804157,-0.3356245803,-0.6306465295,-0.2452452502,0.4330040184,-0.6638535856,0.5209863257,0.8120960989,-0.3516666793,-0.379420647,-0.175512242,0.2682585641,0.6550180129,-0.2722827581,-0.1251172556,0.2492267551,0.7548379143,0.0883759017,0.28260799,-0.5970767578,0.6563719063,-0.5132091251,0.3136150986,-0.2376807419,-0.6752445065,0.3520686263,-0.0715484171,0.047166081,0.4038966952,0.8521359227,-0.3626170325,0.2623542162,-1.0336113207,-0.7076612752,-0.5640075719,-0.6844257812,-0.7618107049,-0.9989613056,0.1927199012,-0.9720327596,0.677209509,-0.9914451887,0.5081606111,0.2562732407,0.1929203946,0.5009587109,-0.6907111313,0.146800561,0.8099254481,-0.1454286616,0.7235902759,0.3444791496,0.9335675605,-0.4659413425,-0.181720593,-0.3833340333,0.4712815522,-0.0409415836,-0.4912578431,0.1727278797,-0.3083450748,-0.721833881,-0.8379626206,0.4317644696,0.8922854418,-0.1732720048,-0.524029934,0.0481317843,0.4479453795,0.979313432,0.9797814131,-0.7699468467,-0.1713615563,0.6975591974,-0.2789315879,0.8410917023,-0.3774431614,-0.8586034879,-0.0064206487,0.7351427851,-0.8623648319,-1.0616098305,-0.0017652014,-0.1172271896,-0.3242094685,-0.909146741,-0.6317216652,-0.9822803548,-0.4410497533,-0.4316502625,0.1685845262,-0.5064910438,0.7711920763,-0.5461966633,-0.4837291101,-0.5514379865,0.7397976742,0.4192112981,-0.7210833041,0.636554903,0.0049527273,0.5241612832,0.5993291154,0.8827196401,-0.9340014096,-0.994998994,0.4936222265,0.3934874326,0.3336489125,-0.7961765847,0.0415250175,0.1657687564,-0.9126787058,-0.4349902361
biasActivation=0,1,1
[BASIC:ACTIVATION]
"org.encog.engine.network.activation.ActivationSigmoid"
"org.encog.engine.network.activation.ActivationReLU",0,0
"org.encog.engine.network.activation.ActivationLinear"
