encog,BasicNetwork,java,3.4.0,1,1671616537301
[BASIC]
[BASIC:PARAMS]
[BASIC:NETWORK]
beginTraining=0
connectionLimit=0
contextTargetOffset=0,0,0
contextTargetSize=0,0,0
endTraining=2
hasContext=f
inputCount=9
layerCounts=9,19,10
layerFeedCounts=9,18,9
layerContextCount=0,0,0
layerIndex=0,9,28
output=0.3044081537,0.3782119166,0.9737469481,0.1344120918,0.5906990161,0.4362377014,0.3797945449,0.7697612488,0.4387596719,0,1.2146300082,1.2858817009,1.6115360127,3.2726372798,3.3118701511,0.3931533031,2.6150530002,2.3231007332,0.0373482209,1.1925614819,0,1.0119818756,2.1138973654,0.7804989757,0,1.2411117493,2.9015743955,1,0.22395,0.406075,0.780325,0.654825,0.329225,0.92565,0.0982,0.391475,0.800975,1
outputCount=9
weightIndex=0,171,351
weights=-0.6525030729,-0.8750113423,0.5642503528,0.044402788,0.2523297305,-0.354284521,-0.8453418472,-0.7641861133,-0.8025657678,-0.3833043458,-0.0552795759,0.1757369345,0.5521556636,0.7073235425,0.0153757417,-0.0058519466,-0.671280833,0.7705297773,0.5936868252,0.7691610662,-0.7185184174,0.4070957739,0.022682253,-0.2228045072,0.0850938145,0.8610536817,0.480784963,-0.5613582404,0.7337056112,-0.4450401315,-0.1484212336,0.5881677918,-0.7131224035,-0.4629516219,0.2362948716,0.4749330802,0.4308326722,-0.0914320231,0.1677553056,-0.0267693031,0.1951016901,-0.6950753082,0.1883146633,-0.043889386,-0.9182946105,0.3337812918,0.4199534973,0.3639081136,-0.4291813576,0.0383442599,-0.6566881359,0.6380135778,0.3856264218,-0.2043957874,-0.0866884355,0.7992899694,-0.1416991063,0.4842398916,-0.6435033292,-0.6212633131,0.5318440178,-0.1845296423,-0.6023992109,-0.9743840221,0.316826562,-0.1439669487,-0.4507220615,-0.0722934605,0.8814327281,0.7440216129,0.5226595437,0.1382041667,-0.2848455984,-0.0467602587,-0.1095379042,-0.1378525144,0.60842506,0.4316770655,0.3848626754,-0.24056716,0.1823436662,-0.0581805573,-0.0526337799,0.4999959817,-0.7369238884,-1.0532867176,0.3385274711,-0.9228274467,-0.6549928546,0.3401916585,-0.4283119367,0.2804597758,0.0685304025,0.0160922145,-0.4617253851,-0.1906479074,-0.6873612019,-1.1203917729,0.515430948,-0.8014849725,0.767397399,-0.3882705588,0.4642673602,0.8054162109,0.680872151,0.7827908981,-0.4827380366,0.580086178,-0.5794597439,-0.4820030646,-0.3094864962,-0.5008392308,0.0466332419,-1.1211313469,0.3056901116,-0.625934228,-0.2973998195,0.4385718314,0.5008614437,0.3977746778,-0.6844606539,-0.6627426401,0.2587679425,-0.5340463245,-0.2236380096,0.3686038294,-0.7462359511,0.2485276713,-0.1367604521,0.6799698874,-0.2134804934,0.061100303,-0.8990795102,-0.8366716232,-0.2820412656,0.7670272367,0.5911018038,0.0208726331,0.7468575669,0.1348979263,0.0087115017,-0.2238565275,0.3345668989,-0.8393869522,-0.6024122684,-1.1447236439,0.4590939026,-0.7636630819,0.724172482,-0.8824151958,-0.1207715715,0.7312011313,0.418750506,0.3274547087,-0.1631426961,0.8077639618,0.4175835228,0.4656059976,-0.6610188785,-0.7077868435,0.30982405,-0.0481010203,-0.9072487428,0.3155063118,-0.4212480176,-0.6663206899,-1.1541646657,-0.686424812,-0.9765020193,0.5170899852,0.277483877,-0.6425725329,0.3999123229,-1.1150469409,0.6713078587,0.3044471962,-0.7541144072,-0.9354554205,0.5816760706,0.7907211822,-0.7267736759,0.3268715495,-0.646962459,0.2736814143,1.0486289778,0.4337180075,0.4356561459,0.3100453523,-0.8115710819,0.290448681,0.0124787661,-0.3200540651,0.7362342012,0.2681519283,0.0261926351,-0.1224795216,0.0378482276,0.5393086529,-0.8095948653,0.880579944,0.396136888,0.5328772419,1.0189911818,-0.1520794164,0.7017909125,-0.624533337,-0.7617438062,0.2095393637,1.0118352496,0.9736680235,0.4516838738,0.5879966869,-0.7683771586,0.7225016665,1.069384563,0.2368957115,0.9588669449,-0.2891781346,0.7037871419,0.6837021358,0.428615042,0.6597369891,0.8834805086,0.5810251119,0.7168516078,0.9226762269,0.9243448344,0.9525949365,1.1562434849,0.8637502718,-0.5148535614,-0.7304851324,0.0523213432,-0.5780076199,0.7997336458,-0.1098107816,1.1510427871,-0.5519861008,0.4180770766,-0.7925276154,-0.0411299125,0.8381550089,-0.2540483652,0.1115138312,0.5750631813,-0.4119290297,0.7753430069,0.9066794032,-0.8588154434,0.9876716431,0.9409177424,1.0666429047,1.0399076357,0.653457526,0.251598017,0.9066147278,1.0859614792,-0.7981421791,-0.695615021,0.2612023679,-0.1749399452,-0.1438937789,-0.4960109846,0.1439891937,0.6135773168,-0.7211385088,-0.8223950085,-0.5281798355,-0.030095624,0.3494409627,0.5392689936,0.0391578167,0.4353606665,-0.1207188621,-0.6334432226,0.4817117438,0.4212001791,0.0414458127,-0.6771134329,0.125456907,1.1280370721,-0.7521414473,-0.3777335191,0.7404080065,-0.9422794504,0.4165544134,-0.4157224768,-0.5113985224,-0.5125980571,-0.2436124595,-0.4296123813,1.1143840981,0.8077981179,-0.5072367861,-0.034665564,0.9762097928,0.4655799686,0.6694644721,-0.31045073,0.4004486062,-0.1644154418,0.9478647448,1.0813813974,-0.5402644119,1.02854435,-0.4024659591,-0.1549634208,0.4898240454,-0.4640931974,1.0137269687,0.8081203283,-0.5551431935,-0.0543008606,0.6081453549,-0.1356132732,0.3583653844,0.2865573021,0.6687497098,0.3362092757,0.0982657234,-0.1181062923,0.0922844601,0.7843748225,0.6069030648,-0.7090659998,1.0135735927,-0.4402409258,-0.885178311,-0.6320050855,0.885336586,-0.833673016,0.5872879359,-0.783359748,0.189347826,-0.1551025445,-0.4881785251,0.1674392422,-0.2198286734,0.25008853,0.5085664167,0.9035688304,-0.6565946991,-0.0595250389,0.6133340916,-0.2629525288,0.0035724748,0.5751004857,0.5174486567,0.8166604948,1.0508899907,1.0206082249
biasActivation=0,1,1
[BASIC:ACTIVATION]
"org.encog.engine.network.activation.ActivationSigmoid"
"org.encog.engine.network.activation.ActivationReLU",0,0
"org.encog.engine.network.activation.ActivationLinear"
