encog,BasicNetwork,java,3.4.0,1,1671630171691
[BASIC]
[BASIC:PARAMS]
[BASIC:NETWORK]
beginTraining=0
connectionLimit=0
contextTargetOffset=0,0,0
contextTargetSize=0,0,0
endTraining=2
hasContext=f
inputCount=9
layerCounts=9,19,10
layerFeedCounts=9,18,9
layerContextCount=0,0,0
layerIndex=0,9,28
output=0.5226662096,0.5288392797,0.6712946307,0.3487305905,0.7046750673,0.7250243167,0.5531720469,0.26693826,0.7779089066,0.3259168407,0.5944153178,0.7234316229,0,0.7878570701,0,0,0,0,0,0,0,0,0,2.165821631,0.0635248195,0,0,1,1,1,0.856175,0.060775,0.164225,0.0556,0.54275,0.94305,0.895025,1
outputCount=9
weightIndex=0,171,351
weights=-0.864229749,-0.7139836878,-0.7202414664,-0.40327009,-0.4487810438,-0.6926173084,-0.5965634689,-0.7941817298,0.863106269,-0.5741184418,-0.2630015722,-0.0237222062,0.670839663,0.5090928856,0.4051901989,-0.7821483959,0.2984117456,-0.6536760406,0.8435338007,0.7062896827,0.8884933509,-0.490807205,-0.2933195602,0.847407943,-0.1606889024,0.4866848945,0.3662078422,-0.6471336159,0.8871031685,-0.0963004526,-0.7919141949,-0.381797782,-0.593518063,-0.2228247434,-0.691562743,-0.8032911296,-0.6572736993,-0.4288812996,-0.6634398897,-0.126035003,-0.9345853713,0.3350910844,-0.357503119,-0.7490089443,0.9052909119,-0.6859892042,-0.1390542603,0.3416047343,-0.3890883842,0.2393128107,0.1407028073,-0.3496993132,0.8497932703,0.6200933245,0.040588418,0.7639625167,0.0830676949,-0.4037925332,0.0717708414,0.1373966113,0.3334672167,0.4363938654,0.7703747145,-0.7099564478,0.6229506368,0.7617578895,0.6713910925,-0.5566972096,0.6974683858,-0.2306797943,0.8697139651,-0.3509646252,-0.2653846563,-0.2666443238,-0.2338259906,-0.201910376,0.0014646772,-0.7246220015,-0.2230782805,-0.0743970812,0.4046827819,0.6807663351,0.0006398697,-0.2385627734,-0.2762571653,0.1608731713,0.9302883363,-0.0528915329,-0.3996896296,-0.9464083556,0.9267267533,0.3058834968,0.6399218554,-0.1213145129,-0.8840967141,0.7596216267,-0.2920892025,-0.785198999,0.4701669377,-0.9103303228,-0.6721968218,0.2196972335,-0.4566148069,0.7369482975,-0.9472855647,-0.5508842886,-0.7707845296,0.7887311504,-0.0940266541,0.9535620474,0.8309150411,0.0282127937,0.401852559,0.0627902709,0.4715399168,-0.8108897977,-0.4798249678,-0.2927836499,-0.4935183195,-0.2035686918,0.543274579,-0.4376233585,-0.3706697269,0.7511904043,0.7509087513,0.5902496764,0.6083203212,-0.6086162394,0.3412656753,0.0188199816,-0.6054055029,0.2365017284,0.5374442925,0.3918432592,-0.6717476832,-0.8241386363,-0.1478069397,0.5604507032,-0.4883885664,0.7697084677,0.2099167627,0.6176655686,-0.1443568859,0.9454090094,0.4647168217,0.4179319613,-0.0614003368,-0.6172364179,-0.7808757845,-0.4051896472,0.8421931834,0.8024581445,0.8813710502,0.9635079932,-0.6517953704,-0.0338172817,-0.8380716501,0.3575059355,-0.255204663,-0.7974396365,0.1769072349,-0.9052299351,-0.9786158533,-0.7121455901,0.7865540427,0.9901525114,0.3305753718,-0.6843820209,0.8563419605,0.7935257754,0.8528622354,-0.0228078207,-0.0553164299,0.3571768431,-0.8895433002,-0.5858187153,0.9262969659,0.2436937554,0.8540071484,-0.5609862881,-0.2385383055,0.0820675368,-0.1963918848,1.0073502065,-0.7875309583,0.8907735638,0.6408714569,-0.3358367359,0.1059095207,0.0261274055,-0.2287732109,0.0706994047,-0.3101578711,1.0221017274,0.5539592483,0.6060716166,-0.4463478576,0.4182412736,0.6174439069,-0.7152609108,-0.1896944317,-0.6845565708,0.2782818081,0.5372323948,0.3300701251,0.8072563584,-0.4581991348,-0.2689033091,0.7963740001,-0.1940545499,-0.7664343211,-0.036215068,-0.349981668,0.1904052024,0.3922724901,-0.3729293105,0.2718591453,0.1540621066,0.0162824375,0.5121931575,0.4759241771,0.4393541418,-0.852263709,-0.262158198,0.5677243747,0.1723767367,0.0870418753,-0.3952233285,-0.1935325666,-0.7009720095,0.4729718753,-0.7350780817,0.8303298309,-0.4185747324,-0.3800517956,-0.8310632583,-0.089705208,0.3385291209,-0.3663084677,0.132263249,-0.6782054497,-0.7669103264,0.7574960744,0.9203564641,0.7522671907,-0.5504205006,0.849262806,-0.2654302588,-0.3372408882,-0.3599562737,-0.3291545849,-0.8500501673,-0.2110742667,0.0277566946,0.6254034397,0.2121542294,-0.8573167083,0.3666826539,-0.3528953385,-0.4788621093,0.2872997127,0.0176598762,-0.4734045855,-0.9640166518,-0.6263619924,-0.2954143522,-0.6657309404,0.0887894834,-0.0142523683,0.0214915082,0.800290092,-0.4586327337,-0.7389110791,-0.5447635088,-0.7550435023,0.6163363901,-0.8734028806,-0.1889695138,-0.1080278126,0.6767798974,-0.5280317416,0.0456450031,-0.9170036416,-0.107815985,-0.4020736512,0.8424963913,-0.5389365346,0.5677098681,-0.1400961052,-0.3890906401,0.5832847675,-0.0423672601,-0.1354094011,-0.4542985287,-0.6609412746,-0.2248808563,0.453901084,0.3265707648,0.7038866399,0.0401161752,-0.8009441989,0.2905454262,-0.7060722014,0.457041297,-0.7886447859,-0.271389888,0.3074317949,-0.0384168079,0.3756062999,-0.5244665406,-0.8564667011,-0.5150138403,0.163127331,0.4626054454,0.9055180525,1.0210279856,-0.9003361937,-0.8645848777,1.0291990111,0.9328357003,0.6127404773,-0.7294136199,0.0968315181,-0.4433248095,-0.0147256597,0.7658900772,0.596767006,0.1633691537,-0.5440971256,0.3593867938,1.0203889695,0.4920834641,-0.9904007334,-0.3186881187,-0.3790864482,0.0339829806,0.7005237599,0.8128074296,-0.1105993551,-0.2392338901,-0.6496675896,-0.3192778423,-0.9865895013,-0.7548037726,0.6052162536,0.8154443874,-0.1415355353,-0.9919039126,0.3117959589,-0.7284281953,-0.3483288991
biasActivation=0,1,1
[BASIC:ACTIVATION]
"org.encog.engine.network.activation.ActivationSigmoid"
"org.encog.engine.network.activation.ActivationReLU",0,0
"org.encog.engine.network.activation.ActivationLinear"
