encog,BasicNetwork,java,3.4.0,1,1671630505349
[BASIC]
[BASIC:PARAMS]
[BASIC:NETWORK]
beginTraining=0
connectionLimit=0
contextTargetOffset=0,0,0
contextTargetSize=0,0,0
endTraining=2
hasContext=f
inputCount=9
layerCounts=9,19,10
layerFeedCounts=9,18,9
layerContextCount=0,0,0
layerIndex=0,9,28
output=0.7356709484,0.3860429814,0.436090595,0.7582392976,0.1239448651,0.4244531864,0.7697842573,0.8183400093,0.5328446948,1.0098207377,3.5779965769,0.3944320174,0.2299709626,1.8451148543,0.2668148087,0,0,0.0987313143,0,2.2304287946,0,0.8427860761,0,0,3.220198116,0,0,1,0.425975,0.512375,0.426225,0.878925,0.914725,0.09445,0.90145,0.55335,0.77765,1
outputCount=9
weightIndex=0,171,351
weights=-0.1167670937,-0.0866080824,-0.5946456479,-0.0809049714,0.5690333965,-0.217253912,-0.6490304663,-1.0458116327,-0.4326262312,-0.5129635032,-0.2617036683,0.1301233856,-0.24542374,0.1046148131,0.6248229595,0.7284599758,-0.9295769478,0.5128145609,-0.7999474539,0.2614774742,-0.3830014611,-0.0792922955,-0.4860851721,-0.0356985468,0.6278237077,-0.4416043281,0.487753267,-0.1328601438,-1.0081418911,-0.3605208188,0.6956527055,0.5353917079,-0.2769646425,0.2273554666,0.1431425825,0.4609072406,-0.2718816093,0.5888378036,0.2619257248,0.4121185879,0.7348207142,0.1451726329,0.5115656094,-0.0757440783,0.3133311372,-0.3816072931,0.0051607979,0.122002911,-0.7966941802,-0.1905559676,-0.1780808262,-0.2031657506,0.2491705256,-0.5532782565,-0.544578067,0.3896152808,0.4651992512,-0.208614912,0.7233734901,0.2152417923,-0.8003616582,0.6176460431,0.0634039327,0.8936061627,0.3690743925,0.1790846691,0.3628637694,-0.1609103763,-0.049866238,0.5904969282,0.244050636,-0.3601169926,-0.638364531,0.6460756112,-0.1695992529,-0.3926813464,0.3439006746,-0.303936307,-0.6803412593,0.8644236504,-0.4418642774,0.8324676278,0.0365037102,0.1418887484,0.9926928581,-0.0192479427,-0.1390919415,0.2731292663,0.9399477561,-0.8723276305,0.6023524395,-0.5542975906,0.8443300589,-0.759948781,0.6523424991,-0.2777810309,0.9198453524,0.6810051401,-0.6947847417,-0.6022766905,-0.7658789326,-0.0239706442,-0.0598251106,0.5646765911,-0.0007650864,-0.6607714956,0.7823080062,-0.1926335817,0.2669988861,-0.0498352409,-0.4642243695,0.7463377203,0.0285593182,0.9668701173,0.4281428043,0.0321280547,-1.1955185344,0.6142968723,-0.5037973258,-0.1803768537,0.0858666776,-0.6648983228,0.4667645812,-0.7173183505,0.0806784589,0.4845044267,-0.1036572048,0.9982162081,0.4124445963,0.4549765678,-1.1653807424,0.4730925788,0.3639776706,-1.1574148877,0.4930789523,-1.1374786386,-1.0054816869,-0.2555530271,-0.8077694713,0.8085701261,-0.57866035,-0.1957768222,0.2494985091,0.0596880604,-0.1754630993,-0.7413899466,0.6639808139,-0.9530187937,0.6911920236,0.1516083624,-0.1966537238,0.56188424,0.1134538931,0.6834116441,-0.2001135617,-0.249503316,-0.0246515309,-0.3312129463,-0.2738858768,0.583456114,-0.2707230851,-0.6298588953,-0.7047979417,-0.5305230523,-0.9313025442,-0.8140601241,-0.819156692,-0.0955489818,0.4924915939,0.1405664679,0.5332286992,-0.7125608608,0.4020095686,0.768480116,-0.0769555351,0.4978647107,0.177829278,0.1659700274,-0.1467344297,0.7132465487,-0.2478127319,-0.1753102461,1.1242957503,0.9021849693,1.1759264957,0.1231118095,1.1625174073,0.4413590955,0.4970194657,0.0245596581,0.7441274249,0.0549679759,0.80783928,-0.8371152074,0.420742642,0.7080537986,0.0002947963,-0.3259079297,-0.3012083656,-0.4883695103,0.136640133,-0.2501907102,-0.440848409,0.2755772476,-0.0472971758,-0.5035690743,-0.7433350521,-0.1991275951,0.0342275738,1.0209690664,0.3839807772,0.4464443523,-0.1462030938,0.8015392358,0.2235517675,-0.4964670944,0.9150654444,0.8478245716,1.0747462606,-0.0361097936,0.2285316429,-0.0110574133,-0.029442013,-0.387851563,0.5605081189,-0.5506510929,1.0283157757,0.0247825691,-0.457866248,-0.5920697026,1.0572907173,-0.7299779134,-0.8758312508,-0.180739878,-0.1082811005,-0.2419254248,-0.7615855427,-0.8804594967,-0.9481648837,-0.0279014937,0.4718471904,0.998517071,-0.1911033922,1.1768696305,0.3364340736,-0.5848733572,0.5204714974,-0.6630772066,-0.6649696979,-0.2309601472,-0.757159122,-0.7759412994,0.0271023208,0.9398543172,-0.1874729869,-0.329386954,1.1056760763,0.3152923603,-0.2994944695,-0.3158009303,0.5035165824,1.0651334138,0.4993762221,-0.0478845324,-0.6769385231,-0.4945965905,0.0377070953,0.0764059381,-0.0140440762,-0.5614851754,0.0705219193,0.3029625784,0.1609590074,0.0906075236,0.6246763883,0.219279179,0.816598574,-0.1110007222,0.786884475,0.9288659818,0.0958386161,-0.3889097843,0.3154071832,-1.0917742169,0.7325916719,-1.0199060373,-0.7667927272,0.7054977896,0.8259423237,-0.141029669,-0.5326245093,0.0758409908,0.267056193,0.6613559311,-0.085338582,0.258429617,0.1568328737,0.2580555418,-0.3043221667,-0.2181853575,0.3210060243,-0.5093132993,-0.4467679064,0.3240627737,-0.5041550108,-0.6004162401,0.4816258088,0.8024914164,0.1005288619,-0.5809474079,-0.9836762348,-0.9931076503,0.112756,0.5267673741,-0.2109381882,-1.0639457723,0.66471668,0.014651111,0.7568248805,-0.7728900157,-0.9479067066,1.1710879099,0.9952544912,0.774411988,0.7252244572,0.2995442071,0.9838172606,0.9266999824,-0.0711870881,0.0030096085,0.078663907,1.1336909272,-0.2194357466,-0.6279390963,-0.8605008536,0.978949358,0.3548663527,0.1190727773,-0.3539717128,-0.7214263173,-0.3341365986,0.542347258,0.2643368028,0.5848602079,-0.2285097105,0.146650355,-0.4503635013,-0.5430233455,0.2561559003,-0.7267319069,-0.4998978038
biasActivation=0,1,1
[BASIC:ACTIVATION]
"org.encog.engine.network.activation.ActivationSigmoid"
"org.encog.engine.network.activation.ActivationReLU",0,0
"org.encog.engine.network.activation.ActivationLinear"
