encog,BasicNetwork,java,3.4.0,1,1671631427177
[BASIC]
[BASIC:PARAMS]
[BASIC:NETWORK]
beginTraining=0
connectionLimit=0
contextTargetOffset=0,0,0
contextTargetSize=0,0,0
endTraining=2
hasContext=f
inputCount=9
layerCounts=9,19,10
layerFeedCounts=9,18,9
layerContextCount=0,0,0
layerIndex=0,9,28
output=0.5920605612,0.2274025651,0.2486331349,0.3709709019,0.1092243635,0.1483143896,0.4942164486,0.6541879988,0.4896210428,1.6252060892,0,0.8659476452,0.6482865067,0,2.2944409276,0.5725968325,0.0620462673,1.5961134716,0,0,0.4198407254,0,1.8471019858,2.2805038744,0,0,0,1,0.3492,0.515825,0.358875,0.057025,0.28635,0.699925,0.336575,0.479825,0.36885,1
outputCount=9
weightIndex=0,171,351
weights=0.3576894342,-0.2029316789,0.2518490284,0.016836764,-0.2194144833,0.4402746521,-0.2962999376,0.1591837458,-0.538456335,-0.0543703852,-0.7362293762,0.4097074277,0.8027648773,-0.4806454367,0.0166342008,-0.1702660386,-0.9878821606,0.7851587612,0.2490598284,0.8267952509,-0.9895716495,-0.1934392518,-0.4545370066,0.112837065,0.5771513328,-0.3510027131,1.0804313081,-0.7917946801,0.7769666589,0.5578217971,0.0362403703,-0.9059979744,-0.2666902223,-0.4114750545,0.0818547423,-0.4566376266,-0.0724761337,-0.6153103322,-0.4692810768,0.6252772745,0.7756703856,0.1017779543,0.5423888509,-0.56286085,1.0628617745,-0.0587216618,-0.4128198416,-0.2978696024,0.8289529686,0.3163177126,0.7573571249,0.3771854591,-0.5318090798,-0.8998578037,0.4849899742,-0.2148022922,0.6477917208,-0.4117384434,-0.4258151377,0.2524484146,0.3775555604,0.607826724,0.8544997185,0.0092253533,0.1020352938,0.3359551947,-0.1990335345,0.2234284864,0.4481693337,0.697666758,-0.7889734761,-0.7542079484,0.7212688054,0.1497715002,-0.5426234363,0.1584284797,-0.130013369,-0.5201905788,-0.432463729,0.0184995926,0.70496331,-0.5239837923,0.9068636691,0.0576195224,-0.3014305158,0.4415503306,-0.6541118243,0.7197027312,0.7596785835,-0.2244402134,-0.3150957337,-0.1943041903,0.7395036058,0.3748221428,0.4666133067,-0.1160008489,0.595379758,-0.4897379583,0.443749481,1.2083573818,-0.7136727069,-0.1698590408,-0.4613195485,0.4202921643,0.986079641,-0.8092965866,0.9433869337,0.9466757853,0.5323422655,-0.4303776181,-0.1257377003,-0.4311260142,0.1528582262,-0.7283023632,0.6134853571,-0.403420429,0.2937642782,1.0924349913,-0.2818231383,-0.770199747,0.3276688237,0.8037267435,-0.4180854675,0.021566526,-0.2502612167,0.189118563,0.9727037347,-0.1942143041,-0.1950734463,-0.0963068697,0.7413020687,0.8024361916,0.9384282716,0.6667929088,-0.9189516205,-0.8844433505,0.17322199,-0.4959733261,0.3948482816,-0.7349719119,-0.0255154533,-0.5811379495,0.3217373141,-0.2146033985,-1.1146268457,0.2395118443,0.1665314582,0.1455659713,0.9774878237,-0.1406050464,0.7205976178,0.4798409289,0.8107952229,-0.2076403526,-0.3077795795,0.7870761791,-0.3596468245,0.6179847228,-0.7742425373,-0.7154994341,0.3960296888,-0.2401180761,-0.0137057689,-0.5693493391,0.5388103578,-0.731406576,-0.5980136065,-0.8125091385,0.9599288379,-0.7011994583,-0.2114849347,0.1980511127,0.0526603505,-0.3013818383,0.1565709984,0.5397580679,-0.1154893258,-0.0194303598,-0.0183721308,1.1793787548,1.1347285324,0.229969299,-0.581006588,-0.8330835174,0.0912785932,-0.9097892796,0.4445658869,0.931153494,-0.509944109,-0.3445030383,-0.5086963464,-0.3790171076,0.4808928607,0.8049047361,-0.9166567018,0.6940252651,-0.7537528942,0.4070693624,0.7827241816,-0.252531985,0.4230588019,-0.1922054403,-0.4845692714,0.3060091737,-0.4223940852,0.9690224568,0.7750928881,0.3392651881,0.2766831086,0.7990675897,-0.4820446326,-0.4769398125,-0.1334980568,-0.4175468459,-0.048549464,0.0803572129,-0.8558331797,1.0572886862,-0.6912071565,0.0110302815,0.7731551397,1.2080765751,0.3845883277,0.4663423788,1.0859780131,1.1982430861,-0.2733032547,0.395217263,0.2484788494,-0.1623574166,1.1007275878,0.085743411,-0.0263490934,1.1514993253,0.3419917247,-0.476415331,-0.5145248552,-0.4490705086,-0.5075239259,0.0658322405,0.9904370475,-0.1765319124,-0.499196715,-0.0151694588,0.7838280238,0.8787750705,0.1311520042,0.8489772278,-0.4968272191,-0.6116774037,0.1767645153,0.9642310854,0.1676492603,-0.1512349456,0.678529904,0.6000308373,-0.0547511153,1.0779570796,0.9909610565,-0.2262582976,0.3001644944,1.0167814221,-0.5704853344,-0.111692383,1.1116097531,0.8545056473,-0.8158691323,0.6076713265,0.6871127839,0.465545417,-0.6750684223,-0.4037141695,-0.7735894184,-0.864974345,-0.28628192,0.62597472,-0.8452386487,0.0809143449,-0.6747113436,0.9911300129,-0.7194049791,0.607783525,0.8400651043,0.7097325124,0.2026379363,0.7061176061,-0.3272467601,-0.0581373969,-0.9082157649,-0.8810168876,0.3151821671,-0.8345588365,0.2583953057,-0.2305246265,-0.0171726544,-0.4263888681,0.4769718057,0.539424837,-0.1172333419,-0.6913424379,-0.8657235988,0.1210342636,-0.1666496812,0.5491397053,0.0671857858,1.1673418881,1.2233780826,1.0173589431,0.5895373305,0.192249667,-0.1968497681,0.1197854318,0.8920406674,0.4730092987,0.8611695128,1.0931641094,0.1573034448,0.2336664758,0.6754665886,1.0109753843,0.3609000441,-0.9897108038,0.1904900243,-0.5524095953,-0.5063937757,-0.3627469452,-0.0412449315,-0.0514401877,-0.3884133699,-0.5503970674,-0.8395394044,0.1266353002,-0.3101088022,0.8432456304,0.8328177503,0.6332328293,-0.9628138192,-0.1948676975,-0.2614034098,-0.4242263638,0.2139095043,-0.6256042221,0.4374380358,0.7245143282,-0.7798619029,0.6799492314,-0.8477516227,-1.0695607037,0.0893882288,-0.4207347513,0.0849797438
biasActivation=0,1,1
[BASIC:ACTIVATION]
"org.encog.engine.network.activation.ActivationSigmoid"
"org.encog.engine.network.activation.ActivationReLU",0,0
"org.encog.engine.network.activation.ActivationLinear"
