encog,BasicNetwork,java,3.4.0,1,1671630861604
[BASIC]
[BASIC:PARAMS]
[BASIC:NETWORK]
beginTraining=0
connectionLimit=0
contextTargetOffset=0,0,0
contextTargetSize=0,0,0
endTraining=2
hasContext=f
inputCount=9
layerCounts=9,19,10
layerFeedCounts=9,18,9
layerContextCount=0,0,0
layerIndex=0,9,28
output=0.7528951845,0.6567488584,0.5802892047,0.3795259114,0.3984640311,0.8185173612,0.8010759983,0.6624006786,0.4947056706,0,0,0,0,2.3430984025,0,0,1.4140534216,0,0,1.6438436032,0,1.1903197732,0,0,1.1704419471,0,0,1,0.18465,0.547525,0.24925,0.462775,0.884125,0.077425,0.949225,0.688025,0.581575,1
outputCount=9
weightIndex=0,171,351
weights=-0.8297520451,0.6269702389,-0.8274068473,0.7616325479,0.5574696302,0.7745406215,0.1531523922,-0.9219681614,0.6038988875,-0.9169967984,0.3537501938,-0.5230284993,0.6054213298,-0.1723807634,0.1533127992,0.1951384566,-0.3130485773,-0.4124225827,-0.4189337547,0.094418001,-0.3951520763,-0.2212082637,0.2159315043,0.1754866449,-0.2182680977,0.2962011902,-0.1515186475,0.9140380807,-0.195239547,0.8973129184,-0.5450891646,0.8599752063,-0.1400902246,-0.4050988251,-0.9087083791,0.1768756715,0.6315754487,-0.9831848846,-0.298737108,-0.1190968475,0.3910233109,0.4186420247,0.2238916656,0.6382490021,0.235507563,-0.3594615864,-0.4350485775,0.7581668815,0.6155243074,-0.3038332647,-0.1574522103,-0.5327991009,0.0966831627,-0.6186485871,0.6124496679,0.3975553312,0.2073434395,-0.0631911137,-0.1021370428,0.2024354644,0.3279935691,0.0886986089,-0.1655805602,0.3662817096,0.8051258329,0.1118284224,0.6792547946,-0.8513606044,-0.1322594659,-0.9326936251,-0.8332173622,0.6310981443,0.9030365973,0.7706342853,-0.8245965782,-0.3851260457,-0.5466549533,-0.1345794594,-0.039443947,0.2489026351,-0.2597339701,0.0880255511,0.4471076257,0.2898892032,-0.1458246892,-0.3320261114,-0.5129508526,-0.4420473497,0.7760674448,-0.6002900112,0.2275106976,-0.1302450183,0.917650929,0.8311451941,-0.1413188823,-0.6862219463,0.2319173751,-0.6297983252,-0.3812244314,-0.0683952953,0.1162897676,0.8429006994,0.7555905733,-0.6480432597,0.8816665852,-0.739925119,-0.1344727172,0.8557944365,0.7899766819,0.6422054441,0.1782278569,0.0747800908,-0.6262509818,0.5871928582,0.1024056097,-0.6917105038,0.0800399003,0.7433066275,0.0407571644,-0.858825131,-0.6904450057,-0.1573810586,0.1605947892,-0.6611974196,0.541218366,-0.4144287471,0.4761536392,-0.7276963606,0.1069345666,0.7603910946,0.8926913897,-0.8904899058,-0.8263669256,-0.1678666813,0.9869436417,0.5080528442,-0.7100919755,0.1394280506,0.8339771718,0.0121831074,0.5534814829,0.5070237154,-0.8876425053,0.0261499399,0.5552474155,-0.5029425983,0.4412608773,0.2950651376,-0.4697886352,-0.8579340722,-0.591512779,0.6702012805,-0.462800531,0.4957014604,-0.9361588677,-0.4171426353,0.2774098303,0.6470427981,-0.2104280962,-0.1470879681,0.3543196866,0.2990629691,-0.4661964092,-0.0452406448,0.5308409236,-0.6092258685,-0.3131168534,0.024715994,0.5367731396,0.9716735352,-0.3576314934,0.2102026815,-0.5715139453,0.2925189869,-0.2101625386,-0.6831341716,0.6005627653,-0.250845294,-0.4245074076,0.3093010172,0.2823977884,0.4005697648,-0.2821306973,-0.312809062,-0.8824922577,-0.2419542976,-0.1252586515,-0.3839742548,0.3698760708,-0.5579521959,-0.4269428878,-0.8785228931,0.5823400594,0.2733788518,-0.3481198118,-0.9219992817,-0.1209302025,-0.7850643123,0.8606371068,-0.7292869329,0.5182083565,0.2812646105,-0.37588835,-0.8755854011,0.4263624824,-0.7075068502,0.8764132176,-1.014997902,0.3522315638,0.9158727325,-0.5396413003,-0.0729533802,0.9162876175,-0.2877266685,-0.6004774835,0.5953737938,0.8574855907,0.8553353168,0.755284765,0.9897610244,-0.2954757056,0.341442316,-0.2068221426,-0.0324546069,-0.6101428562,-0.8355987504,-0.0093146691,-0.3957935821,-0.486211976,-0.8472490684,0.0907305261,-0.1683577982,-0.6117758318,-0.5139662044,0.7371563032,-0.9805146271,-0.7180460699,0.9101238138,-0.707313244,-0.7043055692,0.1220169341,0.6678193695,0.3297219599,-0.6184517752,0.6175813908,0.7702141091,-0.244258247,-0.2012878943,-0.3131056837,0.6776518277,0.3288902592,0.618393452,-0.4509067473,0.1893207314,0.1189359295,0.3873227901,-0.893978521,-0.7842814297,0.9360795191,0.0721362179,-0.1959642451,0.5665840012,0.5569193025,0.1697325223,0.2392724165,0.1693854324,-0.7780280434,0.3515844485,-0.6090821846,-0.5881828229,-0.3402705245,-0.5979749991,0.4909758513,-0.3904476775,0.6746226123,0.8759225364,0.4577401003,-0.5473425807,0.4648421971,-0.565440059,0.9892672091,-0.8579378992,0.1066742395,-0.5010632163,-0.5646853514,0.5214210051,0.7482564382,-0.7235619046,0.1400497778,-0.1394667382,0.2965503225,-0.1431441906,0.2818996477,-0.2409187043,0.7871106582,-0.8308790407,-0.0474162864,0.7712052839,0.0860589753,0.2815594342,0.5414642434,0.5687513684,0.483461059,0.1702838644,-0.5924168258,-0.4365944524,-0.2160011773,-0.8135758741,0.8521350982,0.0099553093,-0.1658428428,-0.6063556029,0.4176277035,-0.8949549626,-0.7142317766,0.6924651201,-0.4082445251,-0.6760908263,-0.9084931668,0.4810776325,0.6465276256,0.0624488738,-0.1218086643,0.7079057343,0.0726069667,-0.5395219926,-0.7850437201,0.9195337952,-0.2641691509,0.364308795,0.6503823756,-0.2335796698,-0.8738520318,-0.4423663044,-0.2933916631,0.5459338372,-0.5761377045,-0.9041263726,-0.4603134945,0.8798090902,-0.990914818,-0.0175391284,-0.2383590676,0.0432966884,-0.3072890388,0.630406698,-0.4169591771,-0.6310661481,-0.9410219181,-0.5968271871,-0.0413807454
biasActivation=0,1,1
[BASIC:ACTIVATION]
"org.encog.engine.network.activation.ActivationSigmoid"
"org.encog.engine.network.activation.ActivationReLU",0,0
"org.encog.engine.network.activation.ActivationLinear"
