encog,BasicNetwork,java,3.4.0,1,1671619756882
[BASIC]
[BASIC:PARAMS]
[BASIC:NETWORK]
beginTraining=0
connectionLimit=0
contextTargetOffset=0,0,0
contextTargetSize=0,0,0
endTraining=2
hasContext=f
inputCount=9
layerCounts=9,19,10
layerFeedCounts=9,18,9
layerContextCount=0,0,0
layerIndex=0,9,28
output=0.5100829299,0.3712292866,0.9685636955,0.2713157914,0.218415713,0.0828808818,0.0825930888,0.653833736,0.6011379284,0.0041303695,0.9905361346,2.7195199656,0,0.6161682387,0,0.3149569533,0,0,0.9533644005,1.8072664832,1.5174497234,1.5614859749,0.6553890743,0,0,0,2.9337262272,1,0.4135,1,0.0445,0.5086,0.28155,0.4162,0.662725,0.516525,0.709625,1
outputCount=9
weightIndex=0,171,351
weights=0.1983489154,0.2604746424,0.5855941599,0.0198631655,-0.4804123055,-0.8464903208,-0.4056058292,-0.399898711,-0.2991004769,0.1338263072,-0.5503759465,-0.8556600671,-0.3673144966,-0.7260971978,0.9965513511,0.3630716979,0.2430230774,0.3637227791,0.7606180043,-0.9129827759,0.3499173915,-0.8522009834,0.3864543679,-0.0234684934,0.8664921016,0.2879142494,-0.8656653218,0.7176546654,0.7329909814,0.0584153117,0.1701724019,-0.7408636569,-0.1233514776,0.7858822749,-0.7448501965,-0.9497182413,0.3082610645,0.6423061445,-0.2373446366,-0.646584381,0.031969028,0.9496715902,-0.941196775,0.9139243383,-0.4814039482,0.1568688028,-0.993828382,0.7868289387,0.3286328513,0.6940487982,0.3770489854,0.6778081445,0.0083457068,-0.888419567,0.3015445265,0.2677124669,0.4982871793,0.7907714404,0.6400986572,0.3257217454,0.0531878164,-0.0834866523,0.5672161058,-0.4137390357,-0.7115202922,0.5906932258,-0.0020131964,-0.5707279291,0.8525712317,-0.9098157715,0.7346379781,-0.3332565759,-0.1269473402,-0.0796250032,-0.7395568378,0.5191719037,-0.7340022866,-0.054383225,-0.0088809291,-0.8026060219,-0.4571833852,0.3336392544,-0.9582801222,0.8676661499,-0.8562696602,-0.6631739626,0.8104907929,0.0517100317,-0.7746148258,-0.6898117176,0.2028662603,0.7021341702,0.224147079,0.3290702553,-0.8251023866,-0.2116499094,0.4012530928,-0.5816801324,0.5610898227,0.4666471234,-0.7118545083,0.352274284,0.5512456747,-0.0972845216,0.4008982182,-0.1012760456,-0.3783530694,0.9226085269,-0.2517881011,0.2467036422,-0.9325991835,-0.2377522731,-0.5772217464,-0.8242561327,-0.0189306894,-0.1276539588,-0.854022264,-0.6117945451,0.0161194916,0.1973884816,-0.8670136599,0.0721157297,-0.7496102718,0.7573194622,0.9062050481,0.0315575528,-0.5601363686,-0.5043485624,-0.6075242662,0.0563026942,-0.0424802582,-0.5169575519,0.6187283238,0.1527012802,0.9249661738,-0.3782093343,-0.1350834589,-0.0947205907,0.0650398793,0.3836513522,-1.0283027422,0.38807967,-0.9236017317,-0.313943264,0.4763826828,0.6791301883,0.1412050298,-0.9558771492,0.4745096984,-0.5606110779,0.3683076748,-0.8233202389,0.1693696124,0.5883991756,0.4154909357,0.0625191646,-0.8335843985,0.2367877356,-0.4115078777,-0.7076293615,0.170638713,-0.4287854055,0.0519469551,-0.0511521998,-0.7837566273,0.344067941,-0.3529795349,-0.7826743057,0.2159702924,0.5620674328,-0.9181195824,-0.2725266744,-0.3218923057,-0.7627557364,-0.7136648255,0.6014464461,0.7868672535,0.7560260846,-0.6364482711,-0.2814690606,0.3662351564,-0.0525947127,0.9361470609,0.3392055765,0.6169104272,0.6079810929,-0.5772707765,0.2204885772,-0.6110894984,-0.1194770837,0.0706683528,0.3524217424,0.9068362897,-0.3111986639,0.8462022236,0.3156347303,-0.8365920914,0.9407340775,0.0274988795,0.1139199634,0.7912575409,-0.9005509318,0.421484918,0.5970632496,-0.2463875864,-0.1695491551,-0.5319299113,-0.8137468095,-0.1207425745,0.785017556,-0.6160009203,0.9133893719,0.0546005288,0.3205179909,-0.6504192483,-0.0458872473,-0.2849179296,0.6724940898,-0.1740914323,-0.3021965008,0.4906139037,-0.9573274133,-0.5878853149,-0.7285032516,-0.1889480255,-0.7961797774,-0.0356158306,-0.2575329497,0.083760112,-0.313145583,0.6789819455,0.4944728133,0.4720502154,-0.3052893903,-0.6401647006,-0.0563965341,0.9172226949,-0.3990813962,-0.8669684634,0.507024644,-0.0357595265,0.4543614596,-0.273326114,0.0663671262,0.5501459564,-0.8348790679,-0.1897080756,-1.0172175592,0.7439951327,-0.8209665381,-0.2880631548,-0.4635488294,-0.9475815378,-0.4550625439,0.7670231936,0.6262786364,-0.1528698676,0.8947907905,0.5268701223,-0.0006965863,-0.4908102209,-0.2537213741,0.9996191785,0.4124226147,-0.1520952618,0.4367866836,0.156903191,0.5864635558,-0.8387938396,0.0841075166,-0.0857094134,0.5768824208,-0.2145444628,1.0319636962,-0.6002539951,-0.1818441839,0.9029075908,0.9241575973,-0.9566631763,0.9097476525,0.9541433787,0.6508363624,-0.0239423455,0.1429062885,0.8590295606,-0.1630757984,0.2451769609,0.2436261592,-0.3812205182,0.2418745882,0.6366933358,-0.486776268,1.0320691982,0.6434468999,-0.2093183121,-0.7927122374,0.489284141,0.9484656351,0.4195711066,-0.6645306161,0.4543494255,-0.1881396358,0.9314165653,-0.6491370553,-0.176548815,0.0072347402,-0.8086267022,0.4578038713,0.5542381776,0.1911310398,-0.4703462425,-0.4378920518,0.0349756008,-0.2777099532,0.2400789718,-0.6887056954,0.1525959501,0.1636189285,-0.8726268265,0.1956528113,-0.1866470636,0.7182922952,-0.5339697642,0.1662602014,0.8923471022,-0.99122963,0.0802248381,-0.4007183827,0.6892334157,-0.3754490616,-0.043443928,0.6165901496,-0.2583193977,-0.9623456055,-0.27226801,-0.2000188666,-0.6628381327,-0.27362633,-0.3635031653,-0.5809027893,0.6627510692,0.8923034426,0.9346917845,-0.2752366726,0.6938489169,-0.232824085,0.5600131403,-0.2675780936,0.4546900454,0.645828693,0.6060733243
biasActivation=0,1,1
[BASIC:ACTIVATION]
"org.encog.engine.network.activation.ActivationSigmoid"
"org.encog.engine.network.activation.ActivationReLU",0,0
"org.encog.engine.network.activation.ActivationLinear"
