encog,BasicNetwork,java,3.4.0,1,1671630997049
[BASIC]
[BASIC:PARAMS]
[BASIC:NETWORK]
beginTraining=0
connectionLimit=0
contextTargetOffset=0,0,0
contextTargetSize=0,0,0
endTraining=2
hasContext=f
inputCount=9
layerCounts=9,19,10
layerFeedCounts=9,18,9
layerContextCount=0,0,0
layerIndex=0,9,28
output=0.636272317,0.4977573731,0.6059148347,0.961829541,0.9289218777,0.5039366874,0.3189093048,0.4372403744,0.6750935298,0,2.2550262839,0.3983187898,3.0263774475,1.3284887044,0.4467744397,0.3289847371,2.8562960764,1.8879415144,0,0,3.2149084119,0.1187957674,0.8294627907,0,0.7004163295,1.8395994845,2.9510314656,1,0.255125,0.524975,0.912375,0.379575,0.794675,0.87775,0.47345,0.9487,0.075025,1
outputCount=9
weightIndex=0,171,351
weights=0.1032190281,0.6665096928,-0.264182105,0.5857003022,-0.6043780309,0.2809600073,0.3934713734,-0.9486646286,-0.2858885173,-0.186115742,-0.0143048042,0.640172732,-0.2105332869,-0.5997232602,-0.3803620536,-1.2629811243,-0.3105329833,0.3446066228,0.0895340552,-0.5422337251,0.1269777692,-0.7713271075,0.062803997,-0.5407576713,-0.0910323806,0.5288323453,-0.9102143823,-0.4223314601,-0.4782069081,-0.6976887548,0.0891109116,0.1245720681,0.5018994519,-0.6488347732,-0.421070144,0.3331535825,0.9702785484,-0.0947370549,-0.0935414115,0.0747863551,0.4984298679,-0.6350760009,0.4719494665,0.2779727937,-0.1821611127,-0.5800177003,0.2763276115,-0.2469723622,0.6309763258,0.4507005778,0.3414658026,0.7404716592,-0.4251797244,-0.1376553253,-0.6680394325,0.4549815843,0.3076989713,-0.3995812907,-0.2232931935,-0.766727259,0.4808931154,0.578317019,-1.2722520968,0.6208521375,0.2946708718,0.4645002133,-0.7904189796,0.2349170411,-0.1320188447,-0.0695677678,0.5839637655,0.6066464726,-0.3402156868,0.1715133411,-0.131352833,0.7163196365,0.1618921753,0.5842609584,0.5750811484,0.6064527999,-0.610155628,-0.5451700011,-0.1482336215,0.5391317141,-1.0009586312,0.0434254014,-0.7619908187,0.5676909055,0.0716716264,-0.7784174111,-0.6451344854,-0.1737101442,0.23575327,-0.3687725364,0.2293684812,-0.5762280983,-0.1460327867,-0.5161589128,-0.1183238527,0.1766250997,0.190563669,0.2800372268,-0.5243418864,-0.697303729,0.3320603448,0.2423479223,0.5128044932,-0.2335191745,0.4502545617,0.1041415309,-0.4173414951,0.7120947827,-0.2502944604,1.0375988481,1.0827031794,0.0679116977,0.6969522463,0.7529811919,-0.0303524054,-0.5937890573,-0.1518674907,-0.6427100654,0.4872532404,-0.4014814348,-0.6120234192,-0.4244656812,-0.7040888678,-0.0064433942,-0.6974295113,0.4638585817,0.0740562833,-0.4726559453,0.1903936069,-0.6968926652,-0.5257273573,-1.1861223441,0.4846430188,0.2276049316,-0.3409629835,0.3262418313,-0.1881755628,-0.6772954952,0.8713383872,-0.2449624225,0.4225252328,-1.0947602514,-0.247751821,0.619311511,-0.8235227457,0.4823761852,-0.3218320928,1.1140557312,-0.9051834796,0.1906866947,-0.3649582852,0.3449250224,0.3987363679,-0.3958412463,-0.581969778,0.6768132788,-0.4935583055,-0.0166566219,0.6101448189,0.5987087454,-0.0885712298,0.4675043197,0.6912127913,-0.4449605014,-0.8143510699,-0.4393980458,-0.9556033846,0.1116963538,-0.5979276149,-0.8625553037,0.1846815897,-0.5056508097,-0.8972645961,0.3142585368,1.1259918173,-0.7700716301,0.3492785137,0.9160340571,-0.0881823545,0.3508351785,-0.6059328748,0.980714277,-0.4062933656,1.2399864855,0.7448159038,0.3030398849,0.2383812183,0.4276691619,-0.7621918603,-0.2540784618,0.4635605522,-0.5523964365,0.9211849478,-0.9066815061,-0.3231583279,-0.6456842177,1.1598968801,0.1388899126,0.114356201,0.2189406033,1.228132045,0.5705457714,0.4389046916,-0.0664811918,0.6886931005,0.4549961864,0.7703140911,-0.8331381786,0.6909244,0.2731437137,-0.5732826425,0.5950853785,0.7409111531,0.460547698,-0.097922461,-0.3587128107,-0.0747497694,-0.0789653697,0.5209806681,0.5656858999,0.6759827098,-0.7828968602,-0.351134419,0.0625136974,-0.2623305598,-0.5585436587,0.6122522721,-1.0061222007,0.3873525325,-0.8847783168,-0.9211885148,1.2650356553,0.5344364306,-0.9335632333,-0.0214801204,0.9488201229,0.4560257021,0.2640636794,-0.6010959655,-0.0545638257,0.054169173,1.2487663964,0.2012197742,0.3131527383,1.0086972145,0.0037835888,0.8592274233,0.4136053773,0.2262439879,0.744269049,-0.7598071355,1.0139949277,0.4024063084,0.9123083184,-0.2246697679,1.1456137035,-0.1907470642,0.5601297598,-0.2389614703,-0.2115533279,1.159357,0.6948272357,0.3325387048,0.1850768441,-0.8171218532,0.0079732194,-0.5996738553,0.3357553369,-0.482328448,0.0607614871,-0.0795513765,-0.2244659859,-0.8527463677,0.6423800259,-0.4541428116,-0.5310124007,0.1655197765,0.0468929422,-0.2810968095,1.0789658958,1.2382101588,0.6055311752,-0.2933239091,-0.5418681014,0.9111203575,0.1481064952,1.0534189715,-0.2543653061,0.6899706905,-0.2512412936,0.2417734646,0.2016385918,-0.0108458708,-0.7996126695,-0.2700543436,0.2493686104,0.4242795747,0.0217363184,-0.8087772509,-0.4733104431,0.4923644137,0.8455756651,1.027272681,-0.1798719283,0.6918097472,0.3072066934,-0.6744016194,0.4659024506,0.4248142888,-0.6335174605,-0.7887361171,-0.248451984,1.0382472967,0.4477940911,-0.4327850096,-0.064812141,-0.1890899416,-0.2095414615,0.5008785715,-0.3502031421,0.9023389153,0.3726412248,0.2473308045,-0.2053643304,0.0070280274,0.1511111997,0.0339400207,0.7296013157,-0.5130406108,0.4743206302,-0.3252392755,-0.5360864492,1.1538067499,-0.1691743601,-0.0686286024,0.1092140105,1.1637582556,0.4019979787,-0.4492297769,0.4993583224,-0.2243067489,1.0839771204,0.3124298797,0.3942053752,0.533641503,-0.117686899,0.894127704
biasActivation=0,1,1
[BASIC:ACTIVATION]
"org.encog.engine.network.activation.ActivationSigmoid"
"org.encog.engine.network.activation.ActivationReLU",0,0
"org.encog.engine.network.activation.ActivationLinear"
